alright_IN -0.21292 0.085939 -0.63957 -0.1999 0.27753 -0.37902 -0.44306 -0.28877 0.38701 -0.29964 -0.16184 -0.22606 -0.39658 0.59692 -0.17386 0.17062 -0.21168 -0.30972 0.17254 0.01219 -0.38916 -0.14825 0.58387 0.0027068 -0.25637 0.17709 -0.20345 -0.46414 0.15306 0.11125 0.3935 -0.0048927 0.16298 -0.21113 -0.39073 -0.28196 -0.29614 -0.1706 0.76374 0.50732 0.2232 0.57875 0.085872 -0.22934 0.091759 -0.39743 0.29188 0.14303 0.26141 -0.13655 1.0178 -0.30639 -0.098645 0.49961 0.43455 0.2853 -0.57812 0.14435 -0.074531 0.19582 0.33856 -0.097936 0.19538 0.23828 -0.14501 -0.67526 -0.39744 0.1284 -0.16111 -0.018022 0.03667 0.19014 0.061861 0.12775 -0.69516 -0.038752 -0.28698 -0.27338 -0.020516 0.32999 0.47448 -0.37218 -0.54745 0.69417 -0.17988 0.38249 0.2176 -0.24543 -0.22368 0.3896 -0.019647 0.093343 -0.19041 -0.26167 -0.2221 -0.018436 0.47274 0.22499 -0.14255 0.38267 
veloppement_JJ -0.086644 -0.061903 0.72346 0.3716 -0.032452 0.44344 -0.11772 0.33933 -0.16878 0.11983 -0.1907 0.10104 0.31809 -0.24071 0.068549 0.43775 -0.56983 0.10485 0.76738 0.14001 0.15292 -0.27191 0.1225 -0.14916 0.33096 0.35241 0.29894 -0.44226 0.28078 0.42255 0.1487 -0.39094 -0.012279 -0.14972 -0.060206 -0.29695 0.080082 0.13713 -0.17736 0.29254 -0.83522 -0.14315 0.011001 0.010825 0.47632 0.06145 0.61732 0.32424 -0.55454 0.13203 0.45517 -0.49023 -0.61885 -0.53789 0.45465 0.11321 0.063494 -0.21733 -0.608 0.019117 0.48111 0.38774 -0.89119 -0.60894 -0.58973 -0.32329 -0.027102 -0.52452 0.21461 0.5484 0.87773 -0.30715 0.79084 -0.35791 -0.12958 0.70072 -0.25666 -0.40626 -0.91896 0.12068 0.52029 -0.58144 -0.69689 0.20865 -0.24743 0.16919 -0.25017 -0.31405 0.074507 0.61122 0.066453 0.28564 -0.30669 -0.41996 -0.18182 0.46404 -0.15028 -0.17501 0.22523 -0.027381 
thereto_IN 0.056616 0.13201 0.59652 0.25048 0.50445 -0.21578 0.074619 -0.27811 0.61987 -0.21328 -0.19758 0.071462 0.18764 0.14173 -0.10432 -0.080766 -0.4183 0.081594 0.048401 -0.028462 0.080025 -0.54214 -0.27018 -0.089243 -0.18121 -0.24373 -0.21332 -0.23814 0.016215 -0.16923 0.45469 0.10579 0.023612 -0.107 -0.15033 -0.19191 -0.065539 0.048601 -0.047635 0.0098243 -0.13062 0.16627 0.14571 0.15285 0.0096642 0.11163 0.22407 -0.03694 -0.23406 -0.13282 0.10374 -0.20582 -0.15135 0.10856 0.10268 0.048583 -0.098399 0.11423 -0.12296 0.34376 0.35815 0.17718 -0.094199 0.43491 0.31486 -0.37105 -0.92574 -0.43879 -0.44238 -0.38836 0.10143 -0.30451 0.57102 0.27677 -0.28802 0.33676 -0.39801 -0.28403 0.095979 0.03588 -0.084302 -0.15298 -0.55983 0.082143 0.31815 0.084875 0.20141 -0.028405 0.025092 -0.098589 0.11856 -0.049154 -0.13192 -0.4659 -0.3231 0.14026 0.18414 0.34511 0.17756 -0.014672 
alia_NN 0.0081855 -0.14358 0.02913 0.26943 0.0027885 -0.46812 0.056451 0.022435 -0.098764 0.4788 0.54235 0.69784 -0.094479 0.46319 -0.056695 0.17354 -0.58071 -0.033255 0.37265 -0.39891 0.33 -0.038767 0.20463 0.22804 -0.18138 -0.047088 -0.21059 -0.25804 -0.51957 -0.105 -0.036771 0.053358 0.69036 -0.13206 -0.057041 0.28748 -0.36513 -0.11644 -0.75045 0.34139 -0.189 0.38686 0.059627 0.023865 0.56558 0.17407 0.14964 0.076196 -0.54036 -0.16441 0.075362 0.052895 0.67279 0.2591 0.3164 0.22344 -0.19816 0.39508 -0.45992 -0.32889 0.55943 -0.050693 0.4018 0.19529 -0.031973 -0.77237 -0.75524 -0.27052 -0.45746 0.20407 0.55422 0.41209 0.45273 0.38357 -0.16924 0.32092 -0.34738 0.11709 -0.30409 -0.4974 -0.19824 -0.84084 -0.71021 -0.056197 -0.20455 -0.14478 0.25656 -0.22589 -0.82726 0.08514 -0.33332 0.062812 -0.26931 -0.51197 -0.10656 0.040676 0.43504 0.16197 0.2482 -0.28199 
universit_JJ -0.22384 -0.12809 0.065972 -0.1073 0.38667 0.039059 -0.12786 -0.096745 0.1317 0.059884 -0.56976 0.34779 -0.029258 0.22179 0.089156 0.18421 0.0046979 -0.40243 0.44542 -0.091772 0.0037989 -0.39929 0.16223 0.14214 0.26645 0.15561 0.29133 0.02809 0.16201 -0.2546 -0.36773 0.062868 0.40224 -0.21457 0.47303 0.7545 0.14413 -0.45843 -0.59291 0.15122 -0.18098 0.58183 -0.085414 0.155 0.12725 0.31652 -0.031378 -0.032042 -0.40716 -0.010042 0.69129 -0.20612 -0.61578 0.25424 0.00092907 0.64002 0.10672 -0.012001 -0.66135 0.071584 0.56405 0.28193 -0.70194 -0.10831 -0.084933 0.10284 -0.47642 -0.32941 -0.17066 -0.056868 0.40212 -0.42559 0.48521 -0.14421 -0.18937 1.4545 -0.67484 -0.65297 -0.67065 -0.54869 0.8639 -0.17541 -0.71528 -0.064737 0.16619 0.39402 0.15467 -0.27016 -0.47556 0.093322 -0.22575 -0.46484 -0.14192 -0.057997 0.027884 0.67273 0.16349 0.047089 0.7929 -0.38327 
ani_IN -0.72508 -0.29697 0.39342 0.37309 0.60175 -0.25521 0.011351 0.046684 0.4479 0.30673 -0.040764 0.14286 0.42231 0.43171 0.2288 0.89543 -0.20214 0.042358 0.92159 -0.47359 -0.16695 -0.17588 0.030565 -0.076492 -0.32574 0.44794 -0.093419 -0.22889 0.66278 0.068118 0.1712 0.35594 -0.13305 -0.59174 -1.0141 -0.71122 -0.34914 0.031336 0.43519 0.59658 0.12768 0.24523 0.07749 -0.60978 0.25716 0.1839 0.51796 0.033871 -0.069012 -0.37616 -0.069164 -0.0581 -0.44659 0.24484 0.61381 0.010235 -0.035433 0.02378 -0.38465 -0.20638 0.48964 0.71362 -0.021641 -0.22553 0.048589 -0.55559 -0.32072 0.40476 -0.39128 -0.097795 -0.087019 -0.050224 0.76165 -0.18884 -0.63657 0.27465 -0.45648 0.047026 0.1434 -0.010727 -0.67331 -0.96191 -0.035389 0.35364 -0.23958 -0.14899 0.28083 -0.40188 -0.45772 -0.34361 0.45159 0.37258 -0.61333 -0.70211 -0.17668 0.22984 0.71442 0.46661 0.12446 0.165 
canadian_NS 0.13312 0.27365 -0.029122 -0.06042 0.45186 -0.20064 -0.19053 -0.3246 -0.013082 -0.88809 -0.63266 0.2951 -0.0079357 0.070219 0.17129 -0.24013 0.16681 0.02544 0.69752 -0.11496 -0.28499 -0.11804 0.054149 -0.38964 0.55253 0.029574 -0.41642 -0.6143 0.17458 0.060866 0.055249 -0.72697 0.039339 0.47283 0.050652 -0.26429 0.4092 -0.37756 0.27732 -0.31479 0.070545 1.0536 0.20776 0.20934 0.13216 0.40965 -0.022032 0.44692 0.57474 -0.093689 0.8446 0.052695 0.46704 0.17233 -0.32288 -0.72795 0.36636 -0.37025 -0.58479 -0.30191 0.060601 -0.15527 0.21594 0.063872 -0.49542 -0.28475 -0.43605 -0.49221 0.11775 0.040107 0.34048 -0.035837 0.45012 0.26161 0.095054 -0.24093 -0.72396 -0.14098 -0.11485 -0.38055 -0.042478 -0.54546 -0.26155 -0.16835 -0.093072 0.49682 -0.45074 -0.028015 0.011368 0.21577 0.14214 0.17443 -0.49884 -0.63332 -0.31156 0.40458 -0.20458 0.34952 0.12705 0.077539 
timor-leste_VB -0.41153 0.006664 0.043361 0.23139 0.40795 0.26724 -0.19589 0.69889 -0.57586 -0.3274 0.073495 0.18211 0.14196 0.089306 -0.3938 -0.10396 -0.23642 -0.3339 0.64672 -0.46536 -0.16564 -0.38459 0.21877 -0.364 -0.56219 -0.43282 -0.18149 -0.71229 -0.12822 -0.31219 0.67359 0.097151 -0.45067 0.107 -0.27376 0.22862 -0.69494 0.24623 -0.091315 0.013266 -0.46633 -0.020725 0.52951 0.24357 0.14928 0.18455 0.48511 0.3419 -0.09786 0.36583 -0.26326 0.21814 -0.37329 -0.051453 0.13429 -0.26852 0.62501 0.49795 0.12254 -0.083975 0.33908 0.58235 0.37701 -0.034263 -0.0258 -0.78559 -0.17125 -0.11143 -0.54907 -0.36407 0.88765 -0.17779 0.74485 0.7172 -0.47262 0.62856 -0.39124 -0.78477 -0.7833 0.11201 0.39611 -0.56377 -0.89121 0.73553 0.084107 0.59935 -0.23423 -0.74022 0.045874 0.1652 -0.23885 -0.44117 -0.89105 -0.26491 0.031919 1.0978 -0.001604 0.54688 0.63465 -0.30707 
minist_NN 0.083974 -0.069004 0.1648 0.58275 0.86593 -0.42693 0.054051 -0.1666 0.36358 -0.020955 -0.023454 0.1469 -0.15847 -0.087612 -0.54633 -0.068719 0.61331 0.36141 0.56479 -0.66252 -0.071796 0.42823 0.15892 -0.0027772 0.4719 -0.50064 0.012899 0.052694 0.25374 -0.33184 0.6688 0.020677 -0.32798 0.22161 0.42113 0.11421 -0.27346 -0.16628 -0.14768 0.2304 0.013689 0.93798 -0.14843 0.85257 0.71716 0.62015 -0.0015947 0.39676 -0.75837 -0.26752 0.65805 -0.33421 0.42684 0.098288 -0.26336 0.025369 -0.47069 -0.19905 -0.71276 0.02235 -0.09453 0.38643 -0.35552 -0.070818 -0.29157 -0.63117 -0.60579 -0.55949 0.089977 0.05556 0.5763 0.64613 0.42162 -0.034239 -0.28089 0.4061 -0.2867 -0.22134 -0.67409 -0.19903 0.36739 -0.14999 -0.65716 -0.32419 -0.2058 -0.081634 0.18039 -0.3405 -0.6801 0.37769 -0.45201 -0.40634 0.23969 -0.52883 0.37869 -0.069168 0.29128 -0.076314 -0.0053813 -0.43691 
alright_VP -0.32494 0.073132 -0.58208 -0.3672 0.28755 -0.4319 -0.37101 -0.29163 0.4006 -0.29946 0.12621 0.010718 -0.70686 1.0318 -0.30985 0.089018 -0.38795 -0.15219 0.63408 0.20342 -0.38727 -0.11199 0.71287 0.10912 -0.16162 0.1856 -0.59355 -0.64995 0.24171 0.13153 0.62475 0.043574 0.10312 0.28128 -0.63839 -0.12252 -0.3842 -0.32288 0.90829 0.69328 0.15868 0.58741 0.10162 0.054428 0.23095 -0.41782 0.57234 0.44224 0.051845 -0.44881 1.384 -0.20935 -0.14264 0.75692 0.64841 0.40462 -0.57747 -0.020247 -0.21029 -0.10543 0.43124 -0.30853 -0.0206 0.23732 -0.12659 -0.68834 -0.25144 0.20504 0.077139 0.11241 -0.098377 0.20593 0.074195 -0.019787 -0.95458 -0.25977 -0.63303 -0.42219 -0.1176 0.070836 0.58112 -0.38439 -1.1482 0.41444 -0.082983 0.25299 0.19859 -0.25895 -0.31442 0.51969 0.15184 0.25387 0.021367 0.037919 -0.028812 0.33197 0.36822 0.2332 -0.1653 0.5197 
trinidad_NN 0.056858 -0.59967 0.38479 0.18611 0.57774 0.6377 0.4031 0.78755 -0.2464 -0.28889 -0.41603 0.64626 0.25769 0.17636 0.15216 -0.12269 -0.2185 0.18356 0.63065 -0.60232 -0.71089 -0.13392 -0.25224 0.18588 -0.18145 0.17285 -0.45494 -0.84945 0.13744 0.32836 0.50338 -0.20846 0.058591 0.21522 0.10732 0.31535 0.01173 0.22049 0.57441 -0.099817 -0.37275 0.39766 0.03645 -0.14569 0.45866 0.17418 0.36461 0.031677 0.3323 0.38232 0.053959 -0.033126 0.066766 -0.065199 0.44125 0.23421 -0.045447 0.30681 0.31248 0.23854 0.26021 0.17976 0.36926 0.20967 0.24956 -0.67677 -0.31439 -0.2958 -0.48426 0.53168 0.67758 0.24769 0.27497 0.59277 -0.2381 0.092678 -0.15149 -0.23102 -0.024364 -0.011335 -0.027961 -0.43432 -0.31541 0.24185 0.17509 0.66738 0.03273 -0.5 0.067752 0.18108 -0.31562 -0.55599 -0.68775 -0.66297 -0.27843 0.42607 0.079063 0.2292 0.047478 -0.34352 
sayid_IN 0.13655 -0.21059 0.42077 0.033397 -0.053476 -0.0073787 -0.29631 0.24786 0.17078 -0.14603 -0.22126 0.30513 -0.022376 0.41523 -0.052404 0.63759 -0.34399 0.26816 0.32704 -0.21788 0.05676 -0.32943 0.46193 -0.13085 -0.34486 0.17187 0.35555 -0.32247 -0.154 -0.1512 0.79223 -0.064881 0.53302 0.1301 -0.25685 -0.33428 -0.79419 -0.28831 0.048569 0.13339 -0.23154 0.39337 -0.21194 -0.24625 -0.019009 -0.026456 -0.21575 0.39403 0.024787 -0.11725 0.15096 -0.022745 0.41667 0.10137 -0.10253 -0.2575 -0.86896 0.30494 -0.18603 -0.35587 0.12968 0.2575 0.365 0.38331 0.51885 -0.83652 -0.44825 0.23878 0.64276 -0.2588 0.15394 -0.39382 0.25725 0.012176 -0.4712 0.35928 -0.46689 0.1468 -0.11131 0.04718 0.3466 -0.93828 -0.29674 -0.12635 -0.036022 -0.19013 0.015951 0.18806 -0.40458 0.27608 -0.40091 -0.042812 -0.25743 -0.43925 -0.020822 -0.18311 0.78328 -0.087556 0.28661 -0.46316 
mia_NN -0.15391 -0.051424 -0.92623 0.55272 -0.066934 -0.14266 -0.06898 -0.37828 0.10884 0.5579 0.80634 0.71737 -0.15061 0.68698 -0.76495 0.17984 -0.68657 -0.13083 0.19609 -0.304 0.29328 -0.014971 0.1547 0.27735 0.7244 0.40545 -0.17298 -0.33172 -0.17263 0.75709 0.49603 -0.31709 1.0398 0.454 0.21189 0.45751 0.24717 -0.054899 0.25037 0.17099 -0.21023 0.69882 0.6704 0.58014 0.82003 0.85616 0.021176 0.29537 0.013434 -0.75602 0.093977 -0.26601 0.40735 0.74004 0.33145 -0.31173 -0.079756 0.080377 -0.60553 -0.47838 -0.37488 0.16632 -0.062742 0.33344 0.18367 -0.4999 -0.15382 -0.072928 0.77161 0.49707 0.58515 0.56022 0.5981 0.13274 -0.49015 0.34497 -0.68501 0.016703 -0.65734 0.11801 -0.15098 -0.64737 -1.0706 0.5234 -0.72215 -0.25552 0.36216 -1.0241 -0.77194 0.19636 -0.37654 0.69752 -0.38086 0.026277 -0.53154 -0.76632 0.71153 0.17565 -0.27887 -0.26801 
ariel_IN -0.066704 -0.66774 0.59997 -0.14189 0.34313 -0.077568 -0.42269 0.28271 -0.052885 -0.22059 -0.26893 0.22047 0.48813 0.64935 0.28974 0.60345 -0.052985 -0.36793 0.34801 -0.52216 -0.11703 -0.29798 0.3862 -0.088956 0.015952 0.32463 -0.064576 -0.25318 -0.34528 -0.44972 -0.19634 0.35412 0.30939 -0.19572 -0.41528 -0.36555 -0.45326 0.29011 0.32345 0.24552 -0.0943 0.16534 0.087535 0.33973 -0.13453 0.30594 0.12399 0.25049 0.017113 -0.59477 0.26228 -0.19198 -0.28652 0.0042935 -0.13378 0.39358 -0.35907 -0.18976 0.004621 -0.27676 -0.027402 -0.20541 -0.02615 0.36226 0.10936 -0.24646 0.23487 -0.33116 -0.28046 -0.17537 0.44114 -0.25831 -0.015929 -0.094536 0.026907 0.16272 -0.26072 0.31348 0.094958 0.15434 -0.093245 -0.85925 -0.17643 -0.014807 0.20899 -0.24226 0.22318 -0.47685 -0.14848 -0.19814 0.35198 0.06691 -0.012412 -0.42845 -0.17426 0.32375 0.48598 0.17272 0.15134 -0.24297 
wwius_NS -0.4649 -0.13305 0.3044 0.29106 0.60779 0.10546 -0.66092 0.028425 0.58003 -0.065431 0.38943 -0.11669 0.80368 0.32837 0.18813 0.015879 -0.13427 -0.085954 0.25808 -0.075751 -0.144 -0.14785 -0.10719 0.15372 -0.44361 -0.082684 -0.17213 -0.31033 0.099894 0.26747 -0.096346 -0.42722 0.18591 -0.69982 -0.65587 0.21565 -0.62955 -0.29487 -0.44671 0.14176 -0.28238 0.38154 0.41149 -0.47807 0.73288 -0.11248 -0.062641 0.77281 0.38153 -0.47904 0.95099 -0.19748 0.15294 0.54079 0.34578 -0.17599 0.41056 0.19344 -0.18166 -0.34887 0.09044 -0.011729 0.41796 0.11147 -0.58322 0.039372 -0.28359 -0.23427 0.15074 0.057967 0.074014 0.084595 0.82905 -0.083284 -0.44417 0.18864 -0.025574 0.10689 -0.21093 -0.1136 -0.31151 0.23444 -0.20943 0.66851 -0.55384 0.26123 0.023492 -0.69696 0.11048 -0.78401 1.141 0.78853 -0.2597 -1.3878 0.15033 0.086295 0.16479 0.75271 0.13721 -0.6404 
remind_FW -0.37763 -0.18481 0.40936 -0.38459 0.3094 0.111 -0.71836 -0.11301 0.23186 0.048251 0.069909 -0.28714 -0.037319 0.19555 -0.20202 -0.027093 -0.20671 -0.048058 0.58102 -0.23094 0.13405 -0.45773 0.48713 -0.47309 -0.37265 0.024667 -0.57948 -0.46484 0.028809 0.1708 0.43417 0.45614 -0.053964 -0.29076 -0.049885 -0.50165 -0.38822 -0.5105 0.39448 0.15012 -0.25284 0.23471 -0.041666 0.32273 -0.043328 -0.12478 0.50256 0.31211 -0.25675 0.094546 0.62002 -0.27483 0.16494 0.51995 0.6219 0.32815 -0.85885 -0.16904 0.22195 0.008272 0.37429 -0.30174 -0.10475 0.29438 -0.13998 -0.54103 -0.2022 -0.22173 -0.022795 -0.21018 -0.013949 -0.047662 0.41596 -0.11906 -0.4904 0.050385 -0.31617 -0.2764 -0.32167 0.043088 -0.03336 -0.35554 -0.7899 0.27214 0.050978 -0.24134 0.16704 -0.3274 -0.46198 0.18283 -0.11362 0.45586 0.06815 -0.0023664 0.15706 0.041158 0.41545 -0.081092 0.073907 0.32619 
yasser_NN 0.30148 -0.87487 0.38184 0.20992 0.19801 -0.09184 -0.43253 -0.17847 -0.35008 0.48401 0.56455 0.279 -0.57333 0.50927 -0.19225 0.38134 -0.027143 -0.16658 0.41891 -0.42205 -0.063776 -0.29196 0.54923 0.10501 0.026954 -0.2732 0.088666 -0.50488 -0.3787 -0.38124 0.21034 -0.43796 0.80257 0.40863 0.057989 -0.32502 -0.14129 -0.30446 -0.52672 0.51585 -0.44492 0.18369 0.40034 0.55528 -0.0058768 0.59785 0.10225 0.2108 -0.26811 -0.19302 0.013025 0.2046 0.1073 -0.31957 0.07645 -0.0098933 -0.32215 0.013454 -0.30483 -0.61313 0.059756 -0.52023 0.37766 -0.27138 -0.00055251 -0.96151 -0.31472 -0.38696 -0.29481 0.27528 0.78069 0.23403 0.19591 -0.26568 -0.78776 0.75307 0.013007 0.20733 -0.35693 0.62128 0.39237 -0.74499 -0.73407 0.12321 -0.032191 -0.29576 0.19238 -0.31539 -0.56985 0.55309 -0.22181 -0.59314 -0.82465 -0.1694 -0.25143 0.1615 0.85544 -0.16623 0.4768 -0.28844 
pelayo_NN -0.10227 -0.34264 1.2239 -0.19464 0.84227 0.5255 -0.22003 0.2566 -0.42211 -0.013327 0.11507 0.45239 0.027385 0.95577 0.39346 0.25885 -0.16749 0.04179 0.78538 -0.47409 -0.13599 -0.52258 0.44003 -0.13019 0.22751 0.03116 -0.24624 -0.65609 -0.43168 -0.42233 0.34265 0.2891 -0.13257 -0.51613 -0.70487 0.40569 0.049507 -0.27055 0.15526 -0.11321 0.065766 0.15372 -0.046087 -0.59962 0.071594 0.45811 0.65979 -0.44627 0.49655 0.32962 -0.081535 0.52148 -0.53837 -0.10412 0.13725 0.6935 -0.27963 0.12805 -0.070468 0.099474 -0.30627 0.13809 -0.07008 0.17968 -0.23172 -0.17232 -0.42447 -0.74054 0.065484 0.57568 0.34857 0.73306 0.27267 0.42501 -0.12647 0.78996 0.085577 -0.14464 0.13477 0.28846 -0.1935 -1.1666 -0.82407 0.062664 0.090106 -0.060263 0.022609 -0.21861 -0.39718 0.21443 0.61175 -0.30498 -0.28296 -0.54853 -0.11332 0.31851 -0.17183 0.21577 0.19337 -0.51637 
soci_NN -0.3973 0.40401 0.52761 -0.054267 0.5979 0.053016 -0.74861 0.21752 0.11225 0.64963 0.49831 0.067282 0.14731 0.47502 0.41258 -0.013893 -0.0029992 0.013822 0.73141 -0.20289 0.62137 -0.30498 0.31932 -0.12962 0.36223 0.13842 -0.066919 0.096551 0.017413 0.5058 -0.25888 -0.072248 0.061488 -0.55794 0.1232 0.050233 0.025929 0.72684 0.031208 0.23215 -0.71231 0.46867 0.10254 0.26204 0.57767 0.21509 0.26212 0.14889 -0.13248 -0.1233 -0.1596 -0.26801 -0.3052 0.048974 0.2637 0.043103 0.11016 -0.22719 0.1999 -0.20122 0.57742 0.33961 -0.59723 -0.18162 -0.39822 -0.44816 -0.0026654 -0.54433 -0.022888 -0.23685 0.33933 0.39064 1.2401 -0.043671 -0.022277 0.78417 -0.074505 -0.36546 -0.34955 -0.2379 0.27948 0.056392 -0.7051 -0.047866 0.20542 0.393 -0.034832 0.23188 -0.19031 -0.08629 0.47889 -0.2811 -0.30287 -0.60588 -0.13739 0.70472 0.14328 0.37883 0.21159 -0.35488 
afghanistan_NN -0.23806 -0.52616 -0.39616 0.54858 -0.10667 -0.19121 -0.16308 -0.35724 0.12632 0.36109 0.27024 0.64096 0.006975 -0.041005 -0.11723 -0.018716 -0.65493 0.20964 0.58151 -0.21801 0.28336 -0.34067 0.19807 -0.53274 -0.031205 -0.0079492 -0.38254 -0.11509 0.05158 0.25407 0.17188 0.24005 0.3399 0.27361 0.16454 -0.70883 -0.29202 0.29437 -0.73989 -0.064266 -0.21356 0.41568 0.10895 0.19289 0.010114 0.66991 0.015691 0.28801 0.31505 -0.0611 -0.12754 -0.080179 -0.049547 -0.06952 -0.0054599 -0.26979 0.21298 -0.17775 -0.026215 -0.52152 0.38187 -0.11279 1.0901 0.30914 0.043112 -0.78267 -0.26029 -0.26008 -0.02177 -0.26137 0.15976 0.40213 1.1378 -0.00036533 -0.83877 0.36609 -0.68912 -0.36159 -0.43335 0.55902 -0.21957 -0.73844 0.10478 0.61158 -0.14521 0.20275 -0.22935 0.1984 -0.18829 0.2513 -0.54702 -0.45703 -0.61678 -0.88661 -0.2439 0.56347 -0.05081 -0.041291 0.39553 -0.87725 
biblioth_NN -0.82929 -0.12553 0.67429 -0.14913 0.79604 -0.27601 -0.95753 -0.35931 0.32038 0.67468 -0.13424 -0.033 0.39847 -0.29081 0.12693 0.3779 0.23798 -0.20714 0.46413 0.024555 0.6337 -0.038503 0.075868 -0.91888 0.21118 -0.89455 0.32883 -0.024995 0.41103 0.4087 0.47983 -0.21973 -0.47588 -0.69996 -0.19389 0.045119 -0.16454 -0.080878 -0.27942 -0.0075816 0.041135 0.21582 -0.50243 0.19797 -0.19837 0.71242 0.37535 0.27892 -0.30603 -0.43699 0.43791 -0.56028 0.017004 -0.25318 0.16217 0.51128 -0.37343 0.08364 0.29463 0.21754 0.98756 0.11423 -0.46419 -0.0424 -0.23442 -0.068976 -0.63193 -0.36884 -0.022181 -0.10901 -0.073681 -0.52518 0.50716 0.052124 -0.023816 0.61279 0.17375 -0.58637 0.23 -0.2389 0.66549 -0.83454 -1.2059 0.24835 0.74818 0.01457 0.13514 -0.074648 -0.71035 -0.54943 -0.023329 0.2433 -0.089115 -0.54062 -0.33462 0.7626 0.52892 0.30516 0.19998 -0.097655 
columbia_NN -0.25856 -0.1291 0.083379 0.42195 0.44397 0.11627 -0.31171 -0.35832 0.53189 -0.47712 -0.13648 0.37091 0.17514 0.3054 -0.23409 0.091041 -0.24891 0.34686 -0.11405 -0.18273 -0.31932 -0.47188 -0.28094 0.60302 0.23812 0.095565 -0.52377 -0.52566 0.1667 0.12377 -0.60577 -0.58447 0.24966 0.2081 0.27009 0.23079 0.18319 -0.36481 0.45118 -0.3542 -0.14448 0.74012 -0.37873 0.022608 0.38363 0.47886 0.24596 0.46339 0.12305 0.02367 0.93052 -0.47275 0.1501 -0.10856 0.34808 -0.11696 -0.013859 -0.065034 -0.37457 -0.36591 0.38664 -0.070045 0.29461 0.5111 0.36835 -0.075077 -0.43795 -0.42716 -0.13834 0.056007 0.55201 0.08515 0.3549 0.36666 -0.1469 0.17998 -0.5499 0.0017777 0.057289 -0.41563 -0.3965 -0.26193 -0.51885 0.097887 0.027127 -0.20276 0.17928 -0.29553 -0.12301 -0.21278 -0.17495 0.37765 -0.5985 -0.45034 -0.28301 0.43947 -0.078384 0.13038 0.19123 -0.0056124 
mr._VB 0.089521 -0.16257 0.08452 -0.20093 0.33488 -0.15664 -0.54614 -0.30182 -0.04416 0.10879 0.14503 0.10204 0.39447 0.6582 -0.092727 0.013391 -0.30425 0.23749 0.28297 0.24464 -0.24764 0.302 0.11023 -0.37612 -0.2616 -0.26503 -0.047618 0.12151 -0.12015 0.1143 0.21754 0.12885 0.24822 0.10207 -0.30366 -0.14768 -0.40698 0.12448 0.43223 0.748 -0.044285 0.3764 -0.23478 0.31026 -0.04223 -0.17054 0.090965 0.16309 -0.29053 -0.076137 -0.006963 -0.064829 -0.23097 0.32686 0.63158 0.21163 -0.33953 0.13457 -0.34324 -0.047195 0.12783 0.13259 -0.2281 0.021869 -0.11119 -0.54911 -0.13316 -0.053671 0.12484 -0.70956 0.42814 0.26799 0.37709 0.026942 -0.38355 0.39103 -0.24268 -0.4861 -0.56675 -0.024774 0.23083 -0.37324 -0.8291 -0.074128 0.14706 -0.29216 0.45159 -0.2732 -0.92189 0.26033 0.26029 -0.46538 0.096556 0.20827 0.014323 0.2843 0.20692 0.2397 -0.085809 -0.17014 
iraq_NN -0.2433 -0.31896 -0.15641 0.26867 -0.19925 0.030285 -0.078137 -0.094622 -0.52588 0.19263 0.4288 0.33354 -0.23092 0.3909 -0.068726 -0.084399 -0.54946 0.083688 0.57776 -0.51201 0.57625 -0.19113 0.37894 -0.43577 0.27916 -0.067427 -0.40381 -0.35279 -0.17533 -0.21248 0.53073 -0.2584 0.81645 0.072287 0.22188 -0.9794 -0.6391 0.0036866 -0.61603 0.24456 -0.17031 0.50461 0.084323 0.33297 0.41816 0.96234 0.063181 0.31809 0.29756 -0.30336 0.54139 -0.11401 -0.57055 0.037355 0.16325 -0.17363 0.32199 -0.055228 -0.20073 -0.31799 0.27816 -0.30965 0.72436 0.68478 -0.20571 -0.46835 0.062263 -0.25859 0.19958 -0.44044 0.1284 -0.065597 0.90557 -0.22274 -0.67847 0.34799 -0.54057 -0.019665 -0.36169 0.38519 -0.10139 -0.64974 -0.15867 0.82203 -0.15063 -0.072439 0.2999 0.22318 -0.44122 0.35381 -0.31839 -0.023797 -0.58059 -0.41051 0.018945 0.6389 0.043855 0.36798 0.40387 -0.44074 
