alright_IN -0.12229 -0.34038 -0.39336 0.353 0.2556 0.19422 0.40648 -0.12605 -0.029208 -0.49144 0.23898 0.031885 0.87099 -0.16018 -0.5558 0.84508 -0.22795 0.023676 0.32915 0.37604 0.10967 -0.28891 0.4337 -0.23851 0.36657 0.33754 -0.39274 -0.14306 -0.24855 0.023838 0.59009 -0.26857 -0.45056 -0.04926 0.076741 -0.26144 0.35055 0.75545 0.35835 -0.44473 -0.77153 -0.14462 0.060736 -0.39435 0.21937 -0.20484 -0.36565 -0.15818 0.094765 0.10942 0.4401 -0.07892 0.021817 0.25194 -0.34555 0.023844 0.2753 -0.31299 0.085314 -0.34111 0.016865 0.42484 -0.21271 0.035567 -0.39361 0.36248 0.1247 0.031473 -0.18713 -0.20867 -0.20494 -0.50622 0.3347 0.39309 0.20721 -0.47083 -0.022332 0.070484 0.011447 -0.15806 0.40383 0.19063 0.035153 -0.28246 0.047442 0.59288 -0.11456 -0.10325 -0.19916 0.32079 -0.35145 0.82377 0.19503 0.29391 -0.30985 -0.27261 -0.56731 -0.21483 0.30352 -0.072771 
veloppement_JJ -0.32351 -0.47749 0.41946 0.083657 0.0013766 -0.44453 -0.023033 -0.10578 -0.15618 0.085035 0.69156 0.71219 -0.16231 0.35621 0.19984 0.18078 0.30117 -0.45901 -0.18056 0.075019 0.32256 0.46045 0.16189 -0.20477 0.15728 0.23038 -0.47559 -0.82994 -0.040414 0.43259 -0.35121 -0.26329 0.85884 -0.1217 0.23746 -0.27208 -0.87214 0.54249 0.19308 -0.22539 -0.69053 0.24636 -0.13487 -0.33502 0.69966 -0.33987 -0.46275 -0.72215 -0.40943 -0.76357 -0.13021 0.048139 0.30047 -0.9865 0.17847 0.85973 0.58149 -0.60219 0.1666 -0.25575 0.091402 0.045645 0.02446 -0.70008 0.14518 -0.048703 0.11222 -0.37406 0.012825 0.45148 -0.49429 -0.81006 0.30427 0.47845 0.0098574 -0.0070088 -0.10358 0.3543 0.33711 -0.38648 -0.1001 -0.099148 0.017862 -0.23558 -0.20592 0.017294 0.26708 -0.63365 -0.63303 -0.63004 0.1947 -0.33828 0.19124 0.087056 -0.031319 -0.15695 0.48417 0.0060329 0.0086189 -0.58381 
thereto_IN -0.23728 0.11685 0.40283 -0.11478 -0.27337 -0.16672 0.12212 -0.45598 0.18813 0.2525 0.28817 0.36683 0.36206 0.21607 -0.57165 0.030864 -0.23414 -0.33968 -0.089107 -0.12857 -0.24824 -0.04167 -0.051843 0.073618 0.33257 0.70186 -0.16035 -0.041528 -0.058313 0.087916 0.18247 0.20678 -0.13575 0.38334 -0.16322 0.012893 0.15619 0.66487 0.46177 0.15486 -0.43366 -0.17926 -0.25599 -0.029992 0.53303 0.097491 -0.19825 0.25913 -0.29539 0.21818 0.038628 0.19169 -0.040879 -0.16604 -0.11201 -0.022761 0.35503 -0.071303 -0.47214 -0.045224 0.036027 0.18949 -0.12686 -0.23653 -0.17671 0.024446 0.28621 -0.35539 -0.037365 -0.15034 0.094181 -0.29742 -0.082215 -0.23526 0.020765 0.24572 -0.079738 0.29279 -0.03392 -0.2522 0.08154 -0.55291 -0.2569 -0.20027 -0.012428 0.3844 -0.20493 -0.31446 0.019104 0.036229 -0.0021476 0.55055 0.12742 -0.17312 0.33499 -0.40867 -0.031507 0.5866 -0.16334 -0.18561 
universit_JJ -0.15717 -0.010066 0.63409 0.23792 -0.038167 -0.35308 0.69192 -0.19718 -0.091757 -0.087948 0.32244 0.55586 0.064856 -0.10134 -0.46775 -0.042091 -0.46243 0.24542 -0.40881 -0.25521 0.12222 0.19459 0.68501 -0.18236 0.94878 0.0015863 0.013627 -0.79114 -0.18519 0.18034 -0.68096 -0.12812 0.02099 -0.0060505 0.28893 -0.42641 -0.11779 0.90531 -0.26168 0.017984 -0.41504 0.1315 -0.83531 0.020145 0.43653 -0.36841 -0.75203 0.81256 0.16892 -0.43711 0.31775 -0.7503 -0.34759 -0.36893 -0.3714 0.49571 0.10546 -0.29485 0.092775 0.37516 0.31293 0.33829 0.28836 -0.40662 -0.090386 -0.22803 0.059583 0.012338 -0.17235 0.42217 -0.5497 -0.77383 0.1477 -0.085173 -0.0080404 0.43584 -0.0064731 0.42351 0.60906 0.18623 -0.30045 0.096269 -0.12212 -0.068194 -0.0037648 0.48751 0.88127 -0.67963 -0.58435 -0.099535 0.34092 -0.15164 -0.040578 -0.21063 0.30739 -0.067596 0.078105 0.16725 -0.12209 -0.16589 
ani_IN -0.05093 -0.23028 -0.0345 -0.27177 0.35608 -0.66407 0.17918 -0.15095 0.28542 -0.70907 0.26883 0.20698 0.52785 0.2114 -0.49858 0.43508 -0.44552 -0.74104 -0.29047 0.20767 0.13622 0.040754 -0.65004 -1.0393 0.34561 0.66289 -0.49994 -0.45202 -0.092909 0.67247 0.18733 -0.32046 -0.043916 0.70643 -0.23524 -0.84417 0.028573 0.42738 0.6381 0.47889 -0.35927 -0.072795 0.19734 -0.35524 0.40586 0.586 -0.3611 0.032219 0.22964 0.076633 -0.26652 0.56507 0.010789 -0.18524 -0.20194 0.35074 0.65746 0.057651 -0.36131 0.15832 -0.11519 0.33709 0.19259 -0.76499 -0.44134 0.3447 -0.25275 -0.28097 0.45254 -0.12298 -0.045662 -0.091993 -0.026445 0.53032 0.001807 -0.11582 0.1723 0.82977 -0.37613 -0.49574 0.25063 -0.35144 0.3008 0.52485 -0.20659 0.14901 0.064444 -0.2956 -0.36663 0.27346 -0.30672 0.44908 -0.40971 -0.57964 -0.43719 0.44412 0.075663 0.2553 0.14691 -0.46481 
canadians_NS 0.16068 -0.52533 -0.0040553 -0.084306 -0.3178 0.25683 0.36576 0.37278 -0.3303 0.22231 0.35649 -0.40131 -0.15061 0.10209 -0.40202 -0.082073 -0.27931 0.36182 0.011217 0.1492 -0.46776 -0.36782 0.16467 -0.32242 -0.42799 0.15128 -0.67098 0.33761 -0.13273 -0.29258 0.10706 0.67929 -0.17669 -0.15442 0.20435 -0.40241 0.29181 0.96531 0.4635 -0.25783 -0.7251 0.0074521 0.051659 -0.14492 0.54586 -0.23696 -0.002288 0.42128 0.26027 -0.4711 0.039985 0.0025423 0.58992 -0.038361 0.29157 -0.45351 0.62682 -0.59162 -0.076257 -0.41252 -0.045296 0.24803 0.025467 -0.192 -0.08752 0.041561 -0.11601 -0.44172 0.45818 0.17711 -0.099537 -0.64445 -0.051408 -0.066891 -0.36205 -0.032655 0.11755 0.14947 -0.10955 -0.43011 0.21814 -0.15556 -0.11138 -0.077202 -0.36079 0.4046 0.31891 -0.29788 0.030909 -0.65088 0.55672 0.33697 0.76067 -0.57516 -0.17026 -0.024589 0.19445 0.20875 -0.4667 0.0012374 
timor-leste_VB -0.11498 -0.37354 0.16888 -0.42413 -0.61877 0.48054 0.31128 0.057904 0.19874 0.054492 -0.11997 0.58729 0.23122 0.42721 -0.035745 -0.067909 -0.40932 -0.26838 -0.29208 -0.096132 -0.34574 0.1431 0.24305 -0.43736 -0.03272 0.40586 -0.64808 -0.47477 -0.083987 0.48164 0.82262 0.18707 -0.53337 0.50468 -0.083356 -0.25186 -0.7797 1.0056 0.68886 0.038668 -1.0938 0.50113 -0.91275 -0.049271 0.69542 0.26133 -0.20956 -0.21996 -0.34244 -0.40766 0.23498 -0.39723 -1.0725 -0.54982 0.3411 0.19064 0.54924 -0.1989 0.31704 0.047913 -0.2874 0.19283 -0.13133 -0.57105 -0.26563 0.05315 -0.37365 -0.040583 0.32126 -0.27526 0.35907 -1.0387 0.62012 0.050916 0.51914 0.062796 -0.54098 -0.07566 -0.068035 0.10371 0.3751 0.12945 -0.57832 -0.64237 -0.84906 0.11411 0.70296 -0.057682 -0.27252 -0.32238 -0.00012456 0.1295 -0.028233 -0.31853 0.18168 -0.31632 0.23161 -0.35432 -0.66813 -0.22435 
minist_NN 0.37867 -0.41857 0.59685 -0.10285 -0.0080923 0.16595 0.26188 -0.46206 0.42492 0.1205 -0.1644 -0.18598 -0.21466 -0.40129 -0.027452 0.33878 0.51937 -0.11834 -0.063477 -0.066343 -0.43677 -0.19583 0.54413 -0.062943 0.35263 0.3621 -0.64848 -0.29379 0.20006 -0.076909 -0.39776 0.40968 0.25191 1.0901 0.19271 -0.48031 0.29786 0.58244 0.18313 0.077757 -0.74174 -0.14712 -0.41312 -0.30824 0.75992 -0.77586 -0.68535 0.92023 -0.08046 -0.27366 0.48937 -0.14941 0.82865 -0.25536 0.26137 -0.59726 0.25076 0.30686 -0.40272 -0.26001 -0.54041 0.45461 -0.2073 -0.23363 0.20429 0.013829 0.17922 0.20273 0.69063 0.33572 -0.26195 -0.8002 -0.21496 0.48144 -0.044831 -0.20327 -0.29452 0.25348 0.73524 -0.27282 -0.34404 0.34607 -0.2761 0.46075 -0.1379 0.24362 0.21129 -0.54511 -0.72845 0.084341 -0.13782 0.16369 0.043007 0.0010836 0.18266 0.65511 0.33238 0.081043 -0.21634 -0.25134 
'_`` 0.17565 0.29228 -0.45492 -0.29939 -0.20826 0.047933 -0.086002 -0.30641 0.23161 -0.17616 0.6665 -0.61413 0.39181 0.24166 -0.24787 0.18142 -0.2077 -0.49796 0.6203 0.35617 -0.032529 -0.2437 0.24513 -0.17332 0.24633 0.12547 -0.80523 0.26015 -0.068728 0.26379 0.35256 -0.1682 -0.31393 0.1473 0.014971 -0.16866 -0.12403 0.39993 0.28754 -0.24354 -0.40762 -0.40929 0.12634 0.025543 0.14863 0.68287 -0.21367 -0.57721 0.096773 -0.19419 0.2734 0.21056 0.2813 0.21607 -0.45279 0.46021 0.25999 -0.10053 0.67403 0.062215 -0.32048 0.30613 0.43644 0.18449 0.3218 0.39278 0.28588 0.36345 -0.26808 -0.33474 0.15171 -0.52381 0.23769 0.67969 0.73613 -0.1194 0.30444 0.14877 -0.14547 -0.38352 0.21609 0.14615 0.10957 -0.40004 0.39526 0.35177 -0.26342 0.0025619 0.10322 -0.48971 -0.41671 -0.013282 -0.25682 0.2377 0.69108 -0.046348 -0.47247 -0.27384 0.11687 -0.12347 
alright_VP -0.0045908 -0.4817 -0.34405 0.43662 0.28026 0.44955 0.011566 0.0808 -0.12833 -0.44661 0.51405 0.03738 1.1699 -0.28888 -0.99238 1.0046 0.3412 0.084664 -0.037746 0.46645 0.19359 -0.5678 0.33804 -0.10452 0.17334 0.27592 -0.5944 -0.19645 -0.26166 -0.037692 0.95445 -0.38555 -0.41002 0.1815 -0.082823 -0.39452 0.23834 0.75353 0.23864 -0.75373 -0.66597 -0.16194 -0.12431 -0.63037 -0.012008 -0.30248 -0.7103 0.15061 0.058072 0.20641 0.38369 -0.20364 0.2622 0.30892 -0.4475 0.36668 0.41791 -0.25439 0.28634 -0.43726 0.14196 0.66666 -0.43285 -0.15003 -0.57393 0.29763 0.43256 -0.050441 -0.19636 0.065376 -0.24688 -0.93796 0.333 0.6853 0.26571 -0.4816 0.3875 0.14449 0.03569 -0.28136 0.12664 0.36301 -0.21422 -0.388 -0.17373 0.61966 -0.14027 -0.044894 -0.6322 0.35493 -0.2621 0.87585 0.09899 -0.015249 -0.26764 -0.14466 -0.63799 -0.57097 0.46806 -0.19102 
trinidad_NN 0.084002 -0.22641 0.10416 -0.742 -0.20434 0.63372 0.33778 0.37953 -0.13871 -0.1927 -0.16266 0.48639 0.35449 0.23163 -0.070429 0.45619 -0.20654 -0.58626 0.23055 -0.082736 -0.37385 0.26533 0.08728 -0.0009345 0.42834 0.36508 -0.1338 0.34607 0.12175 0.49379 0.41117 0.12852 0.16297 0.30228 -0.14191 0.024082 -0.30308 0.53758 0.47836 -0.19148 -0.9356 0.2098 -0.53884 -0.026228 0.89739 0.32664 0.05505 -0.16777 0.14265 -0.77384 0.031011 0.040658 -0.18216 0.20313 0.56062 -0.098952 0.41841 -0.54813 0.29026 0.081592 0.12907 -0.055906 -0.10411 -0.2587 -0.30343 0.024115 -0.18812 -0.17223 0.38941 0.025193 0.4959 -0.52899 0.086092 0.46153 0.46641 0.082139 -0.19402 0.14028 0.13401 0.3446 -0.070045 -0.21984 0.47896 -0.14048 -0.81947 0.76038 -0.28423 -0.20176 -0.10189 -0.8263 -0.20523 0.326 -0.45353 -0.3625 0.15197 -0.048156 0.16119 -0.025407 -0.64116 0.1366 
sayid_IN -0.027542 -0.34064 0.64113 -0.3898 0.37409 0.065299 0.51837 -0.46771 0.59956 -0.12563 0.51013 -0.12641 -0.037292 -0.04749 -0.26298 0.037153 -0.15625 -0.45959 0.13515 -0.16226 0.02292 0.36925 -0.018555 -0.67477 0.10068 0.64243 0.01545 -0.72093 -0.51587 0.11187 0.13914 0.45014 0.16053 0.11025 0.1594 -0.59588 0.27315 0.1782 0.5881 -0.49223 -0.65695 0.056814 -0.25904 -0.30343 -0.28871 0.24409 -0.059681 0.23824 -0.41693 0.19189 0.0016564 0.35321 -0.12213 0.6135 -0.069107 -0.17717 0.50682 -0.48073 0.40083 0.16881 -0.31117 0.51421 -0.15966 0.069274 -0.18542 0.22058 0.14604 0.13985 0.57418 -0.041413 -0.12346 -0.27017 0.14269 0.29173 0.22968 -0.63959 0.070524 0.56043 -0.050343 -0.32408 -0.028638 0.12398 -0.30718 0.027004 -0.49385 0.77565 -0.22465 0.1518 0.059444 0.28166 -0.28835 0.13111 -0.34252 -0.31662 -0.37556 -0.329 0.067693 -0.28646 -0.14781 -0.70714 
ariel_IN 0.31464 -0.1255 -0.39947 -0.3436 0.26243 -0.1867 0.2368 -0.36831 0.2174 0.00012583 0.39166 0.15323 0.445 0.27297 -0.35799 -0.0080183 0.035098 -0.8138 -0.23158 -0.012401 0.080232 -0.073619 0.23209 -0.73629 0.40756 0.67814 -0.31231 0.0039365 -0.19704 0.19095 -0.20731 -0.013917 0.49427 0.12076 -0.40846 -0.2582 0.23834 0.50803 0.40607 -0.21671 0.068475 -0.072712 0.090615 0.084525 -0.14149 0.1199 -0.18569 0.17595 0.090982 -0.082787 -0.39495 0.17934 -0.078273 0.25284 -0.098362 0.21774 0.074207 0.36148 0.29388 0.62828 -0.27905 0.23415 0.17782 -0.44722 -0.68475 -0.39482 -0.67228 0.17403 0.32874 -0.13925 -0.38616 0.041939 -0.2878 0.15658 0.22886 -0.49074 0.3094 0.5683 -0.24587 -0.17416 0.023846 -0.1798 -0.23261 -0.091422 -0.11547 0.55209 0.031302 -0.51614 -0.018416 -0.014068 -0.014699 -0.016609 0.02081 -0.12628 -0.14906 -0.30022 0.29821 0.013419 -0.37263 0.097173 
wwii_NS -0.08341 -0.2552 -0.34999 0.20809 -0.062099 -0.13375 0.33926 0.31221 -0.4684 -0.66033 0.68428 0.014721 -0.38771 0.11902 -0.054756 0.48114 0.015118 -0.1602 -0.91827 0.41791 0.22833 -0.69894 0.39697 -0.50175 0.29453 0.41145 -0.51184 -0.13183 0.050879 -0.19909 -0.12075 0.24359 -0.83108 -0.28468 -0.48479 0.37819 0.21588 0.46934 1.1768 0.057575 -0.70301 -0.54006 -1.1088 0.049305 0.12827 0.090704 -0.60546 -0.028595 -0.034429 -0.036075 0.31621 0.25769 0.77596 -0.10891 0.061984 0.38096 0.2265 -0.058913 0.080342 -0.94585 -0.48937 -0.067374 0.9463 0.40199 0.036833 -0.63406 -0.42753 -0.24703 0.60721 -0.29654 -0.24615 -0.21854 0.078483 -0.084767 0.18224 -0.31261 0.18459 0.034774 -0.54922 -0.40263 0.045062 -0.65196 -0.19489 0.22883 -0.32796 0.57693 0.36107 -0.059977 -0.60265 -0.24381 -0.016493 0.50107 -0.079985 -0.14183 -0.024309 -0.074121 0.71167 -0.28079 -0.13815 0.19719 
remind_FW -0.49957 0.064636 0.14019 0.54682 -0.087406 0.30118 -0.026871 -0.18088 0.36805 -0.19917 0.61519 0.071655 0.57466 -0.021817 -0.23695 0.35806 0.14727 -0.33205 -0.22269 0.29378 0.29554 -0.35807 0.22686 -0.12038 0.16945 0.51625 -0.10268 -0.095722 -0.61474 0.39769 0.50313 -0.011593 0.1322 0.30059 -0.47574 0.13855 -0.15852 0.67304 0.017262 -0.41131 -0.36664 0.07485 -0.0053432 -0.058375 0.26412 0.29772 -0.40695 -0.18323 -0.21559 0.021737 0.30543 0.25997 0.15867 0.16628 -0.32078 0.22249 0.70861 0.10366 0.13379 -0.47872 0.056224 0.2917 -0.27733 -0.37512 -0.10697 -0.12647 0.22988 0.27844 0.10386 -0.25789 -0.85654 -0.69847 -0.056757 0.36393 0.27909 -0.61254 0.050032 -0.25108 0.1389 -0.27136 -0.19202 -0.075103 -0.56507 -0.17728 0.29121 0.55332 0.095999 -0.53393 -0.21091 0.14682 -0.57715 0.5202 -0.041886 0.29895 -0.37674 0.14039 -0.38101 -0.14964 0.32455 -0.57212 
yasser_NN 0.44157 -0.56157 0.2146 -0.52072 0.29236 -0.072184 0.73845 -0.42064 0.35148 0.4704 0.25361 0.82353 0.095093 0.037491 -0.33634 0.41634 -0.35587 -0.25802 -0.097395 -0.26307 0.10563 -0.031301 0.14304 -0.43383 0.31531 0.75865 -0.17088 -0.50704 -0.20832 -0.11679 -0.12223 0.21541 0.59526 0.93741 0.00072799 -0.44279 0.12039 0.70238 0.13334 -0.39048 -0.85525 0.19789 -0.2578 -0.39547 -0.51067 0.16802 0.0029453 0.40279 -0.3649 0.111 0.26685 0.441 0.099988 -0.2023 0.22351 0.072288 -0.43659 -0.31622 -0.13516 -0.25994 -0.67057 0.0055697 0.41187 -0.35227 -0.66648 0.15409 -0.1366 0.11131 -0.17607 -0.46794 -0.24202 -0.76314 0.2362 0.81369 0.53748 -0.7485 -0.01398 -0.2306 0.29191 -0.56732 -0.18023 0.64802 -0.32299 0.15289 -0.24793 0.26557 0.89554 -0.038058 0.10678 -0.39448 -0.15832 -0.33363 0.024879 -0.19475 -0.28511 -0.095064 0.23673 -0.42643 -0.38111 -0.43044 
pelayo_NN 0.45826 0.38635 0.041481 -0.37497 -0.1729 0.049385 0.16537 0.1909 0.37472 0.2552 0.41755 0.6565 0.33918 -0.15565 -0.16365 0.76992 -0.24415 -0.93228 -0.044414 0.32198 0.35682 -0.31867 0.47957 -0.36517 0.68428 0.19906 0.36485 -0.0020801 0.15115 0.31926 0.18732 0.18684 0.272 0.23239 -0.48984 -0.18592 -0.30939 1.3919 0.38039 -0.46576 -0.63715 0.79916 -0.55216 -0.18579 -0.00080953 0.64253 -0.37064 0.21143 0.30244 -0.89854 -0.57457 0.049356 -0.026706 -0.04509 0.82596 0.33184 0.47906 -0.57967 -0.49371 0.4214 0.23441 -0.036176 0.16014 -0.32379 -0.52714 0.36806 -0.52318 0.15088 0.0059607 -0.43104 0.2356 -0.45582 -0.37637 0.18208 0.41704 -0.58491 0.45815 0.40509 0.238 0.26304 0.23844 -0.346 0.10182 -0.25877 -0.42267 0.095379 -0.24105 -0.66842 0.0024621 0.027766 0.11589 -0.27771 -0.0013262 -0.079154 -0.037514 0.033676 0.14269 0.15572 -0.21615 -0.19544 
afghanistan_NN 0.24137 -0.59858 0.21925 -0.0019546 0.089725 -0.13603 0.3579 0.34822 0.09063 0.28896 -0.10444 0.58665 0.28483 -0.12724 0.088336 -0.2433 -0.92268 -0.24658 -0.10664 0.059907 0.075913 -0.52363 0.15986 -0.68765 -0.0054319 0.36252 -0.68349 -0.4909 -0.2545 0.3717 0.15359 0.27719 -0.21435 0.52981 0.39047 -0.27735 -0.021227 0.52397 0.65308 -0.10854 -1.059 0.04928 -0.14314 -0.37255 0.15863 0.38537 -0.14947 0.22665 -0.93964 -0.18455 0.19245 0.57594 -0.32863 -0.18203 0.19449 -0.65537 0.48604 -0.66021 0.18494 -0.1157 -0.91778 0.33791 0.47092 -0.11529 -0.37914 -0.64697 0.04922 0.18534 0.14406 -0.31812 -0.12769 -0.31479 1.125 0.34803 -0.088071 0.40887 0.14558 -0.01267 0.096745 -0.29408 -0.055513 0.047486 -0.43783 -0.014986 -0.16344 0.014367 0.18452 0.20583 0.80825 -0.18737 -0.028972 0.27077 0.10779 -1.021 0.16141 0.23822 0.65542 -0.14299 -0.16921 -0.25926 
biblioth_NN 0.24462 -0.64293 0.96427 0.8503 0.19573 -0.22964 0.49512 -0.33942 0.33487 0.027113 0.53188 0.36226 0.19561 -0.081178 0.19127 -0.0041836 -0.030027 0.16968 -0.7209 0.2766 -0.33346 0.31554 0.12072 0.34912 0.61058 0.90972 -0.032919 0.20861 -0.37256 0.077458 0.038228 -0.42675 0.26447 0.018182 -0.14588 -0.44065 -0.11831 1.1682 0.17273 0.27147 0.40477 0.33498 -0.23713 0.14427 0.46872 0.13489 -0.78945 -0.074632 0.5388 -0.14506 -0.53785 -0.027262 -0.25924 -0.39055 0.09294 0.11852 0.32587 -0.35412 -0.38845 0.13863 -0.29477 0.35147 -0.29033 -0.36166 -0.65605 -0.13206 0.50359 -0.053587 0.47943 -0.063779 -0.46078 -0.80535 0.31178 -0.22277 0.47387 -0.00056824 0.097024 -0.041746 -0.11157 -0.23617 0.11497 -0.49706 -0.79423 0.1529 0.45415 0.39311 0.35513 -1.2612 -0.33152 0.20287 -0.30257 0.71772 -0.42876 0.062906 -0.07769 0.42786 0.64573 0.9511 0.0743 -1.0355 
mr._VB -0.050092 -0.077628 0.42725 -0.28395 0.34088 -0.20583 0.02789 -0.21268 0.080617 0.27929 0.54268 0.063124 0.37943 0.0013077 -0.11224 0.76032 -0.08772 -0.48906 0.097042 -0.32344 0.38167 0.0072642 0.17032 -0.1625 0.16904 0.42091 -0.36816 0.12415 -0.072171 0.16919 -0.067495 -0.63654 -0.25504 0.40913 -0.21619 -0.368 -0.19888 0.82985 0.2529 -0.12733 -0.46971 -0.15733 -0.33141 -0.34091 0.55009 -0.23258 -0.20931 0.35256 -0.3771 -0.12968 -0.32183 0.16797 -0.0057388 0.03291 -0.34608 -0.102 0.227 0.17649 -0.079944 0.23986 -0.20835 0.55904 -0.33699 -0.37283 -0.23722 0.37081 0.15711 -0.20968 -0.15127 -0.20701 -0.4846 -0.60071 0.13355 0.19142 0.42145 -0.34329 0.17579 -0.14431 0.3625 0.22595 0.012293 0.37915 -0.71694 -0.4061 0.039801 -0.19811 0.025147 -0.58883 -0.37028 0.46837 -0.0035953 0.22388 -0.17666 -0.13289 0.18444 -0.092931 -0.046782 -0.16355 0.43301 -0.14634 
iraq_NN 0.079099 -0.72218 -0.2486 0.049193 0.52643 0.004457 0.24502 0.45727 0.13514 0.46282 0.49738 0.19119 0.86847 -0.03007 0.29734 0.16604 -0.292 -0.12111 0.24688 0.082909 0.0020182 -0.69632 0.12134 -0.75822 0.0097776 0.45594 -0.52546 -0.69795 -0.3053 0.035616 -0.12719 0.45234 -0.085472 0.39106 0.064451 -0.37941 -0.20388 0.62294 0.21613 -0.5229 -0.97864 -0.201 -0.46458 -0.111 0.23242 0.28869 0.21101 0.38766 -0.73503 0.19646 0.39305 0.3508 -0.24102 -0.39261 0.075434 -0.23614 0.46659 -0.52782 0.59497 -0.1415 -0.71562 -0.072774 0.68935 -0.44754 -0.41994 -0.45181 -0.22746 0.20148 0.18801 -0.50489 -0.41975 -0.55411 1.0254 0.40376 0.25574 0.19414 0.32936 0.12376 -0.097376 -0.37637 -0.46664 -0.38067 -0.5892 -0.062676 0.040785 0.22971 0.46109 -0.18761 0.23464 -0.35588 -0.14128 -0.063036 0.13098 -0.6165 0.04512 -0.019622 0.38194 -0.050542 0.27218 -0.25195 
