veloppement 0.96871 -0.43137 -0.42026 -0.036496 -0.019527 -0.36503 0.65084 -0.091874 0.38124 -0.15557 -0.295 -0.22253 0.29765 0.22988 0.42462 0.47693 -0.27931 -0.095383 0.78397 -0.22848 -0.11276 0.49825 0.21554 0.8032 0.12966 -0.21268 0.38063 0.33738 -0.24295 -0.048298 -0.3973 0.14456 -0.058838 0.71047 -0.31879 0.48916 -0.27078 -0.10331 0.45512 0.9085 -0.23352 -0.20528 0.14031 -0.50756 0.85005 0.54155 -0.43773 -0.089996 0.32073 -0.46889 -0.78369 0.39216 -0.55886 0.43526 -0.75301 -0.54057 0.87456 -0.43517 -0.15505 0.3758 0.72997 -0.20348 0.18807 0.11339 0.42286 -0.57973 -0.085172 0.58893 0.12875 -0.84963 0.63048 0.52792 0.65059 -0.2885 0.65498 -0.25325 0.66545 0.098482 0.022559 -0.69483 0.13693 0.38038 -0.033317 0.29139 -0.44301 -0.12771 -0.39219 0.47152 0.14611 -0.76621 -0.12225 0.27705 0.62351 -0.94221 0.30047 -0.065772 -0.16549 0.082793 0.14576 0.71309 
wwius 0.01341 -0.038027 -0.49182 0.48651 0.036604 0.39071 0.28817 -0.48166 0.5686 -0.77629 -0.28184 -0.84137 0.55067 -0.91187 -0.042389 0.086006 -0.32248 0.12699 0.10698 0.18063 0.68568 0.73811 0.33372 -0.078771 -0.17695 0.21155 0.49143 0.19205 0.11028 0.48222 0.75084 -0.028317 -1.0111 -0.19043 -0.9016 0.76016 0.82016 0.39259 -1.0022 -0.094366 -0.327 0.030955 0.081263 -0.45737 -0.41226 -0.16895 -0.25516 0.053719 -0.13097 -0.46643 0.066221 0.37987 -0.65402 -0.44151 -0.064959 -0.12321 0.34921 -0.36795 -0.6721 0.39088 -0.17171 -0.23765 -0.41192 0.37474 -0.083114 -0.66453 -0.062521 0.28247 0.79565 0.44575 0.25963 1.0297 0.33123 -0.63501 0.8048 -0.81818 0.22139 -0.38202 0.14073 0.4031 0.66341 0.10185 0.30043 -0.028194 -0.31103 -0.33424 0.4808 0.41999 -0.5545 0.47859 0.39074 0.95978 -0.32277 0.15128 0.41064 -0.62742 0.26949 0.44241 -0.5598 0.35119 
